digraph Tree {
node [shape=box, style="filled, rounded", color="black", fontname=helvetica] ;
edge [fontname=helvetica] ;
0 [label="pred_excitement <= 0.5\ngini = 0.358\nsamples = 5738\nvalue = [6931, 2117]\nclass = highlight", fillcolor="#eda775"] ;
1 [label="pitch <= 72.191\ngini = 0.15\nsamples = 3231\nvalue = [4652, 413]\nclass = highlight", fillcolor="#e78c4b"] ;
0 -> 1 [labeldistance=2.5, labelangle=45, headlabel="True"] ;
9 [label="amplitude <= -0.001\ngini = 0.118\nsamples = 2725\nvalue = [3985, 268]\nclass = highlight", fillcolor="#e78946"] ;
1 -> 9 ;
19 [label="pitch <= 54.651\ngini = 0.254\nsamples = 303\nvalue = [399, 70]\nclass = highlight", fillcolor="#ea975c"] ;
9 -> 19 ;
23 [label="gini = 0.073\nsamples = 102\nvalue = [152, 6]\nclass = highlight", fillcolor="#e68641"] ;
19 -> 23 ;
24 [label="polarity <= -0.089\ngini = 0.327\nsamples = 201\nvalue = [247, 64]\nclass = highlight", fillcolor="#eca26c"] ;
19 -> 24 ;
25 [label="gini = 0.0\nsamples = 2\nvalue = [0, 4]\nclass = non-highlight", fillcolor="#399de5"] ;
24 -> 25 ;
26 [label="pitch <= 55.875\ngini = 0.314\nsamples = 199\nvalue = [247, 60]\nclass = highlight", fillcolor="#eba069"] ;
24 -> 26 ;
27 [label="gini = 0.36\nsamples = 8\nvalue = [4, 13]\nclass = non-highlight", fillcolor="#76bbed"] ;
26 -> 27 ;
28 [label="gini = 0.272\nsamples = 191\nvalue = [243, 47]\nclass = highlight", fillcolor="#ea995f"] ;
26 -> 28 ;
20 [label="pitch <= 53.315\ngini = 0.099\nsamples = 2422\nvalue = [3586, 198]\nclass = highlight", fillcolor="#e68844"] ;
9 -> 20 ;
39 [label="gini = 0.02\nsamples = 551\nvalue = [870, 9]\nclass = highlight", fillcolor="#e5823b"] ;
20 -> 39 ;
40 [label="pitch <= 53.347\ngini = 0.122\nsamples = 1871\nvalue = [2716, 189]\nclass = highlight", fillcolor="#e78a47"] ;
20 -> 40 ;
41 [label="gini = 0.408\nsamples = 3\nvalue = [2, 5]\nclass = non-highlight", fillcolor="#88c4ef"] ;
40 -> 41 ;
42 [label="gini = 0.119\nsamples = 1868\nvalue = [2714, 184]\nclass = highlight", fillcolor="#e78a46"] ;
40 -> 42 ;
10 [label="gini = 0.293\nsamples = 506\nvalue = [667, 145]\nclass = highlight", fillcolor="#eb9c64"] ;
1 -> 10 ;
2 [label="pred_excitement <= 1.5\ngini = 0.49\nsamples = 2507\nvalue = [2279, 1704]\nclass = highlight", fillcolor="#f8dfcd"] ;
0 -> 2 [labeldistance=2.5, labelangle=-45, headlabel="False"] ;
3 [label="gini = 0.448\nsamples = 1371\nvalue = [1429, 731]\nclass = highlight", fillcolor="#f2c19e"] ;
2 -> 3 ;
4 [label="amplitude <= 0.002\ngini = 0.498\nsamples = 1136\nvalue = [850, 973]\nclass = non-highlight", fillcolor="#e6f3fc"] ;
2 -> 4 ;
5 [label="pitch <= 47.741\ngini = 0.439\nsamples = 540\nvalue = [284, 589]\nclass = non-highlight", fillcolor="#98ccf2"] ;
4 -> 5 ;
11 [label="gini = 0.0\nsamples = 8\nvalue = [13, 0]\nclass = highlight", fillcolor="#e58139"] ;
5 -> 11 ;
12 [label="amplitude <= -0.008\ngini = 0.432\nsamples = 532\nvalue = [271, 589]\nclass = non-highlight", fillcolor="#94caf1"] ;
5 -> 12 ;
13 [label="pitch <= 70.928\ngini = 0.304\nsamples = 207\nvalue = [61, 265]\nclass = non-highlight", fillcolor="#67b4eb"] ;
12 -> 13 ;
17 [label="gini = 0.464\nsamples = 58\nvalue = [33, 57]\nclass = non-highlight", fillcolor="#acd6f4"] ;
13 -> 17 ;
18 [label="gini = 0.209\nsamples = 149\nvalue = [28, 208]\nclass = non-highlight", fillcolor="#54aae8"] ;
13 -> 18 ;
14 [label="amplitude <= 0.001\ngini = 0.477\nsamples = 325\nvalue = [210, 324]\nclass = non-highlight", fillcolor="#b9ddf6"] ;
12 -> 14 ;
21 [label="subjectivity <= 0.317\ngini = 0.494\nsamples = 230\nvalue = [166, 205]\nclass = non-highlight", fillcolor="#d9ecfa"] ;
14 -> 21 ;
47 [label="pitch <= 80.351\ngini = 0.497\nsamples = 223\nvalue = [166, 196]\nclass = non-highlight", fillcolor="#e1f0fb"] ;
21 -> 47 ;
49 [label="gini = 0.49\nsamples = 201\nvalue = [138, 184]\nclass = non-highlight", fillcolor="#cee6f8"] ;
47 -> 49 ;
50 [label="amplitude <= -0.003\ngini = 0.42\nsamples = 22\nvalue = [28, 12]\nclass = highlight", fillcolor="#f0b78e"] ;
47 -> 50 ;
51 [label="gini = 0.459\nsamples = 9\nvalue = [5, 9]\nclass = non-highlight", fillcolor="#a7d3f3"] ;
50 -> 51 ;
52 [label="gini = 0.204\nsamples = 13\nvalue = [23, 3]\nclass = highlight", fillcolor="#e89153"] ;
50 -> 52 ;
48 [label="gini = 0.0\nsamples = 7\nvalue = [0, 9]\nclass = non-highlight", fillcolor="#399de5"] ;
21 -> 48 ;
22 [label="gini = 0.394\nsamples = 95\nvalue = [44, 119]\nclass = non-highlight", fillcolor="#82c1ef"] ;
14 -> 22 ;
6 [label="amplitude <= 0.01\ngini = 0.482\nsamples = 596\nvalue = [566, 384]\nclass = highlight", fillcolor="#f7d6bf"] ;
4 -> 6 ;
7 [label="subjectivity <= 0.003\ngini = 0.462\nsamples = 533\nvalue = [534, 303]\nclass = highlight", fillcolor="#f4c8a9"] ;
6 -> 7 ;
29 [label="pitch <= 65.73\ngini = 0.477\nsamples = 398\nvalue = [378, 245]\nclass = highlight", fillcolor="#f6d3b9"] ;
7 -> 29 ;
31 [label="pitch <= 34.726\ngini = 0.24\nsamples = 60\nvalue = [80, 13]\nclass = highlight", fillcolor="#e99559"] ;
29 -> 31 ;
33 [label="gini = 0.0\nsamples = 6\nvalue = [0, 8]\nclass = non-highlight", fillcolor="#399de5"] ;
31 -> 33 ;
34 [label="amplitude <= 0.003\ngini = 0.111\nsamples = 54\nvalue = [80, 5]\nclass = highlight", fillcolor="#e78945"] ;
31 -> 34 ;
63 [label="gini = 0.5\nsamples = 4\nvalue = [4, 4]\nclass = highlight", fillcolor="#ffffff"] ;
34 -> 63 ;
64 [label="gini = 0.026\nsamples = 50\nvalue = [76, 1]\nclass = highlight", fillcolor="#e5833c"] ;
34 -> 64 ;
32 [label="amplitude <= 0.003\ngini = 0.492\nsamples = 338\nvalue = [298, 232]\nclass = highlight", fillcolor="#f9e3d3"] ;
29 -> 32 ;
35 [label="amplitude <= 0.002\ngini = 0.46\nsamples = 36\nvalue = [19, 34]\nclass = non-highlight", fillcolor="#a8d4f4"] ;
32 -> 35 ;
45 [label="gini = 0.497\nsamples = 20\nvalue = [15, 13]\nclass = highlight", fillcolor="#fceee5"] ;
35 -> 45 ;
46 [label="gini = 0.269\nsamples = 16\nvalue = [4, 21]\nclass = non-highlight", fillcolor="#5fb0ea"] ;
35 -> 46 ;
36 [label="amplitude <= 0.008\ngini = 0.486\nsamples = 302\nvalue = [279, 198]\nclass = highlight", fillcolor="#f7dac6"] ;
32 -> 36 ;
43 [label="gini = 0.493\nsamples = 264\nvalue = [234, 183]\nclass = highlight", fillcolor="#f9e4d4"] ;
36 -> 43 ;
44 [label="gini = 0.375\nsamples = 38\nvalue = [45, 15]\nclass = highlight", fillcolor="#eeab7b"] ;
36 -> 44 ;
30 [label="pitch <= 80.166\ngini = 0.395\nsamples = 135\nvalue = [156, 58]\nclass = highlight", fillcolor="#efb083"] ;
7 -> 30 ;
53 [label="amplitude <= 0.006\ngini = 0.425\nsamples = 113\nvalue = [129, 57]\nclass = highlight", fillcolor="#f0b990"] ;
30 -> 53 ;
57 [label="gini = 0.341\nsamples = 64\nvalue = [79, 22]\nclass = highlight", fillcolor="#eca470"] ;
53 -> 57 ;
58 [label="amplitude <= 0.006\ngini = 0.484\nsamples = 49\nvalue = [50, 35]\nclass = highlight", fillcolor="#f7d9c4"] ;
53 -> 58 ;
59 [label="gini = 0.305\nsamples = 9\nvalue = [3, 13]\nclass = non-highlight", fillcolor="#67b4eb"] ;
58 -> 59 ;
60 [label="amplitude <= 0.008\ngini = 0.434\nsamples = 40\nvalue = [47, 22]\nclass = highlight", fillcolor="#f1bc96"] ;
58 -> 60 ;
61 [label="gini = 0.245\nsamples = 18\nvalue = [30, 5]\nclass = highlight", fillcolor="#e9965a"] ;
60 -> 61 ;
62 [label="gini = 0.5\nsamples = 22\nvalue = [17, 17]\nclass = highlight", fillcolor="#ffffff"] ;
60 -> 62 ;
54 [label="gini = 0.069\nsamples = 22\nvalue = [27, 1]\nclass = highlight", fillcolor="#e68640"] ;
30 -> 54 ;
8 [label="subjectivity <= 0.058\ngini = 0.406\nsamples = 63\nvalue = [32, 81]\nclass = non-highlight", fillcolor="#87c4ef"] ;
6 -> 8 ;
15 [label="pitch <= 82.312\ngini = 0.28\nsamples = 48\nvalue = [15, 74]\nclass = non-highlight", fillcolor="#61b1ea"] ;
8 -> 15 ;
37 [label="gini = 0.24\nsamples = 46\nvalue = [12, 74]\nclass = non-highlight", fillcolor="#59ade9"] ;
15 -> 37 ;
38 [label="gini = 0.0\nsamples = 2\nvalue = [3, 0]\nclass = highlight", fillcolor="#e58139"] ;
15 -> 38 ;
16 [label="amplitude <= 0.012\ngini = 0.413\nsamples = 15\nvalue = [17, 7]\nclass = highlight", fillcolor="#f0b58b"] ;
8 -> 16 ;
55 [label="gini = 0.208\nsamples = 11\nvalue = [15, 2]\nclass = highlight", fillcolor="#e89253"] ;
16 -> 55 ;
56 [label="gini = 0.408\nsamples = 4\nvalue = [2, 5]\nclass = non-highlight", fillcolor="#88c4ef"] ;
16 -> 56 ;
}